<?xml version="1.0"?>
<opencv_storage>
<cascade>
  <stageType>BOOST</stageType>
  <featureType>HAAR</featureType>
  <height>24</height>
  <width>24</width>
  <stageParams>
    <boostType>GAB</boostType>
    <minHitRate>9.9500000476837158e-01</minHitRate>
    <maxFalseAlarm>5.0000000000000000e-01</maxFalseAlarm>
    <weightTrimRate>9.4999998807907104e-01</weightTrimRate>
    <maxDepth>1</maxDepth>
    <maxWeakCount>100</maxWeakCount></stageParams>
  <featureParams>
    <maxCatCount>0</maxCatCount>
    <featSize>1</featSize>
    <mode>BASIC</mode></featureParams>
  <stageNum>4</stageNum>
  <stages>
    <!-- stage 0 -->
    <_>
      <maxWeakCount>1</maxWeakCount>
      <stageThreshold>1.</stageThreshold>
      <weakClassifiers>
        <_>
          <internalNodes>
            0 -1 1 -2.5070971250534058e-01</internalNodes>
          <leafValues>
            1. -1.</leafValues></_></weakClassifiers></_>
    <!-- stage 1 -->
    <_>
      <maxWeakCount>2</maxWeakCount>
      <stageThreshold>-1.5885321795940399e-01</stageThreshold>
      <weakClassifiers>
        <_>
          <internalNodes>
            0 -1 4 1.4821846969425678e-02</internalNodes>
          <leafValues>
            -9.7916668653488159e-01 8.7804877758026123e-01</leafValues></_>
        <_>
          <internalNodes>
            0 -1 0 -7.0244795642793179e-03</internalNodes>
          <leafValues>
            8.2031345367431641e-01 -9.8142611980438232e-01</leafValues></_></weakClassifiers></_>
    <!-- stage 2 -->
    <_>
      <maxWeakCount>2</maxWeakCount>
      <stageThreshold>-2.1849803626537323e-01</stageThreshold>
      <weakClassifiers>
        <_>
          <internalNodes>
            0 -1 5 -6.2355607748031616e-02</internalNodes>
          <leafValues>
            8.5185188055038452e-01 -9.3814432621002197e-01</leafValues></_>
        <_>
          <internalNodes>
            0 -1 6 3.3299643546342850e-02</internalNodes>
          <leafValues>
            -9.4419986009597778e-01 7.1964627504348755e-01</leafValues></_></weakClassifiers></_>
    <!-- stage 3 -->
    <_>
      <maxWeakCount>2</maxWeakCount>
      <stageThreshold>-9.0426415205001831e-02</stageThreshold>
      <weakClassifiers>
        <_>
          <internalNodes>
            0 -1 3 1.1642833240330219e-02</internalNodes>
          <leafValues>
            -9.7674417495727539e-01 6.7391306161880493e-01</leafValues></_>
        <_>
          <internalNodes>
            0 -1 2 -1.7171310260891914e-02</internalNodes>
          <leafValues>
            9.7793179750442505e-01 -7.6433944702148438e-01</leafValues></_></weakClassifiers></_></stages>
  <features>
    <_>
      <rects>
        <_>
          4 18 15 3 -1.</_>
        <_>
          9 18 5 3 3.</_></rects>
      <tilted>0</tilted></_>
    <_>
      <rects>
        <_>
          10 6 7 18 -1.</_>
        <_>
          10 12 7 6 3.</_></rects>
      <tilted>0</tilted></_>
    <_>
      <rects>
        <_>
          11 8 5 6 -1.</_>
        <_>
          11 10 5 2 3.</_></rects>
      <tilted>0</tilted></_>
    <_>
      <rects>
        <_>
          11 10 8 2 -1.</_>
        <_>
          15 10 4 2 2.</_></rects>
      <tilted>0</tilted></_>
    <_>
      <rects>
        <_>
          12 2 6 10 -1.</_>
        <_>
          15 2 3 10 2.</_></rects>
      <tilted>0</tilted></_>
    <_>
      <rects>
        <_>
          15 7 3 10 -1.</_>
        <_>
          15 12 3 5 2.</_></rects>
      <tilted>0</tilted></_>
    <_>
      <rects>
        <_>
          16 9 8 8 -1.</_>
        <_>
          16 9 4 4 2.</_>
        <_>
          20 13 4 4 2.</_></rects>
      <tilted>0</tilted></_></features></cascade>
</opencv_storage>
